<?xml version="1.0"?>
<PMML version="4.2" xmlns="http://www.dmg.org/PMML-4_2" xmlns:xsi="http://www.w3.org/2001/XMLSchema-instance" xsi:schemaLocation="http://www.dmg.org/PMML-4_2 http://www.dmg.org/v4-2/pmml-4-2.xsd">
 <Header copyright="Copyright (c) 2016 jenkins" description="Random Forest Tree Model">
  <Extension name="user" value="jenkins" extender="Rattle/PMML"/>
  <Application name="Rattle/PMML" version="1.4"/>
  <Timestamp>2016-06-01 12:00:38</Timestamp>
 </Header>
 <DataDictionary numberOfFields="68">
  <DataField name="class" optype="categorical" dataType="string">
   <Value value="should_approve"/>
   <Value value="should_decline"/>
  </DataField>
  <DataField name="f1" optype="continuous" dataType="double"/>
  <DataField name="f2" optype="continuous" dataType="double"/>
  <DataField name="f3" optype="continuous" dataType="double"/>
  <DataField name="f4" optype="continuous" dataType="double"/>
  <DataField name="f5" optype="categorical" dataType="string"/>
  <DataField name="f6" optype="categorical" dataType="string"/>
  <DataField name="f7" optype="categorical" dataType="string"/>
  <DataField name="f8" optype="continuous" dataType="double"/>
  <DataField name="f9" optype="categorical" dataType="string"/>
  <DataField name="f10" optype="continuous" dataType="double"/>
  <DataField name="f11" optype="continuous" dataType="double"/>
  <DataField name="f12" optype="continuous" dataType="double"/>
  <DataField name="f13" optype="categorical" dataType="string"/>
  <DataField name="f14" optype="continuous" dataType="double"/>
  <DataField name="f15" optype="categorical" dataType="string"/>
  <DataField name="f16" optype="categorical" dataType="string"/>
  <DataField name="f17" optype="continuous" dataType="double"/>
  <DataField name="f18" optype="continuous" dataType="double"/>
  <DataField name="f19" optype="categorical" dataType="string"/>
  <DataField name="f20" optype="categorical" dataType="string"/>
  <DataField name="f21" optype="continuous" dataType="double"/>
  <DataField name="f22" optype="continuous" dataType="double"/>
  <DataField name="f23" optype="continuous" dataType="double"/>
  <DataField name="f24" optype="continuous" dataType="double"/>
  <DataField name="f25" optype="continuous" dataType="double"/>
  <DataField name="f26" optype="categorical" dataType="string"/>
  <DataField name="f27" optype="continuous" dataType="double"/>
  <DataField name="f28" optype="continuous" dataType="double"/>
  <DataField name="f29" optype="continuous" dataType="double"/>
  <DataField name="f30" optype="continuous" dataType="double"/>
  <DataField name="f31" optype="categorical" dataType="string"/>
  <DataField name="f32" optype="continuous" dataType="double"/>
  <DataField name="f33" optype="continuous" dataType="double"/>
  <DataField name="f34" optype="categorical" dataType="string"/>
  <DataField name="f35" optype="categorical" dataType="string"/>
  <DataField name="f36" optype="categorical" dataType="string"/>
  <DataField name="f37" optype="categorical" dataType="string"/>
  <DataField name="f38" optype="categorical" dataType="string"/>
  <DataField name="f39" optype="categorical" dataType="string"/>
  <DataField name="f40" optype="categorical" dataType="string"/>
  <DataField name="f41" optype="continuous" dataType="double"/>
  <DataField name="f42" optype="categorical" dataType="string"/>
  <DataField name="f43" optype="continuous" dataType="double"/>
  <DataField name="f44" optype="continuous" dataType="double"/>
  <DataField name="f45" optype="continuous" dataType="double"/>
  <DataField name="f46" optype="continuous" dataType="double"/>
  <DataField name="f47" optype="continuous" dataType="double"/>
  <DataField name="f48" optype="continuous" dataType="double"/>
  <DataField name="f49" optype="categorical" dataType="string"/>
  <DataField name="f50" optype="categorical" dataType="string"/>
  <DataField name="f51" optype="categorical" dataType="string"/>
  <DataField name="f52" optype="categorical" dataType="string"/>
  <DataField name="f53" optype="categorical" dataType="string"/>
  <DataField name="f54" optype="categorical" dataType="string"/>
  <DataField name="f55" optype="categorical" dataType="string"/>
  <DataField name="f56" optype="continuous" dataType="double"/>
  <DataField name="f57" optype="continuous" dataType="double"/>
  <DataField name="f58" optype="continuous" dataType="double"/>
  <DataField name="f59" optype="continuous" dataType="double"/>
  <DataField name="f60" optype="categorical" dataType="string"/>
  <DataField name="f61" optype="categorical" dataType="string"/>
  <DataField name="f62" optype="continuous" dataType="double"/>
  <DataField name="f63" optype="categorical" dataType="string"/>
  <DataField name="f64" optype="continuous" dataType="double"/>
  <DataField name="f65" optype="categorical" dataType="string"/>
  <DataField name="f66" optype="categorical" dataType="string"/>
  <DataField name="f67" optype="categorical" dataType="string"/>
 </DataDictionary>
 <MiningModel modelName="randomForest_Model" functionName="classification">
  <MiningSchema>
   <MiningField name="class" usageType="predicted"/>
   <MiningField name="f1" usageType="active"/>
   <MiningField name="f2" usageType="active"/>
   <MiningField name="f3" usageType="active"/>
   <MiningField name="f4" usageType="active"/>
   <MiningField name="f5" usageType="active"/>
   <MiningField name="f6" usageType="active"/>
   <MiningField name="f7" usageType="active"/>
   <MiningField name="f8" usageType="active"/>
   <MiningField name="f9" usageType="active"/>
   <MiningField name="f10" usageType="active"/>
   <MiningField name="f11" usageType="active"/>
   <MiningField name="f12" usageType="active"/>
   <MiningField name="f13" usageType="active"/>
   <MiningField name="f14" usageType="active"/>
   <MiningField name="f15" usageType="active"/>
   <MiningField name="f16" usageType="active"/>
   <MiningField name="f17" usageType="active"/>
   <MiningField name="f18" usageType="active"/>
   <MiningField name="f19" usageType="active"/>
   <MiningField name="f20" usageType="active"/>
   <MiningField name="f21" usageType="active"/>
   <MiningField name="f22" usageType="active"/>
   <MiningField name="f23" usageType="active"/>
   <MiningField name="f24" usageType="active"/>
   <MiningField name="f25" usageType="active"/>
   <MiningField name="f26" usageType="active"/>
   <MiningField name="f27" usageType="active"/>
   <MiningField name="f28" usageType="active"/>
   <MiningField name="f29" usageType="active"/>
   <MiningField name="f30" usageType="active"/>
   <MiningField name="f31" usageType="active"/>
   <MiningField name="f32" usageType="active"/>
   <MiningField name="f33" usageType="active"/>
   <MiningField name="f34" usageType="active"/>
   <MiningField name="f35" usageType="active"/>
   <MiningField name="f36" usageType="active"/>
   <MiningField name="f37" usageType="active"/>
   <MiningField name="f38" usageType="active"/>
   <MiningField name="f39" usageType="active"/>
   <MiningField name="f40" usageType="active"/>
   <MiningField name="f41" usageType="active"/>
   <MiningField name="f42" usageType="active"/>
   <MiningField name="f43" usageType="active"/>
   <MiningField name="f44" usageType="active"/>
   <MiningField name="f45" usageType="active"/>
   <MiningField name="f46" usageType="active"/>
   <MiningField name="f47" usageType="active"/>
   <MiningField name="f48" usageType="active"/>
   <MiningField name="f49" usageType="active"/>
   <MiningField name="f50" usageType="active"/>
   <MiningField name="f51" usageType="active"/>
   <MiningField name="f52" usageType="active"/>
   <MiningField name="f53" usageType="active"/>
   <MiningField name="f54" usageType="active"/>
   <MiningField name="f55" usageType="active"/>
   <MiningField name="f56" usageType="active"/>
   <MiningField name="f57" usageType="active"/>
   <MiningField name="f58" usageType="active"/>
   <MiningField name="f59" usageType="active"/>
   <MiningField name="f60" usageType="active"/>
   <MiningField name="f61" usageType="active"/>
   <MiningField name="f62" usageType="active"/>
   <MiningField name="f63" usageType="active"/>
   <MiningField name="f64" usageType="active"/>
   <MiningField name="f65" usageType="active"/>
   <MiningField name="f66" usageType="active"/>
   <MiningField name="f67" usageType="active"/>
  </MiningSchema>
  <Output>
   <OutputField name="Predicted_class" feature="predictedValue"/>
   <OutputField name="Probability_should_approve" optype="continuous" dataType="double" feature="probability" value="should_approve"/>
   <OutputField name="Probability_should_decline" optype="continuous" dataType="double" feature="probability" value="should_decline"/>
  </Output>
  <Segmentation multipleModelMethod="majorityVote">
   <Segment id="1">
    <True/>
    <TreeModel modelName="randomForest_Model" functionName="classification" algorithmName="randomForest" splitCharacteristic="binarySplit">
     <MiningSchema>
      <MiningField name="class" usageType="predicted"/>
      <MiningField name="f1" usageType="active"/>
      <MiningField name="f2" usageType="active"/>
      <MiningField name="f3" usageType="active"/>
      <MiningField name="f4" usageType="active"/>
      <MiningField name="f5" usageType="active"/>
      <MiningField name="f6" usageType="active"/>
      <MiningField name="f7" usageType="active"/>
      <MiningField name="f8" usageType="active"/>
      <MiningField name="f9" usageType="active"/>
      <MiningField name="f10" usageType="active"/>
      <MiningField name="f11" usageType="active"/>
      <MiningField name="f12" usageType="active"/>
      <MiningField name="f13" usageType="active"/>
      <MiningField name="f14" usageType="active"/>
      <MiningField name="f15" usageType="active"/>
      <MiningField name="f16" usageType="active"/>
      <MiningField name="f17" usageType="active"/>
      <MiningField name="f18" usageType="active"/>
      <MiningField name="f19" usageType="active"/>
      <MiningField name="f20" usageType="active"/>
      <MiningField name="f21" usageType="active"/>
      <MiningField name="f22" usageType="active"/>
      <MiningField name="f23" usageType="active"/>
      <MiningField name="f24" usageType="active"/>
      <MiningField name="f25" usageType="active"/>
      <MiningField name="f26" usageType="active"/>
      <MiningField name="f27" usageType="active"/>
      <MiningField name="f28" usageType="active"/>
      <MiningField name="f29" usageType="active"/>
      <MiningField name="f30" usageType="active"/>
      <MiningField name="f31" usageType="active"/>
      <MiningField name="f32" usageType="active"/>
      <MiningField name="f33" usageType="active"/>
      <MiningField name="f34" usageType="active"/>
      <MiningField name="f35" usageType="active"/>
      <MiningField name="f36" usageType="active"/>
      <MiningField name="f37" usageType="active"/>
      <MiningField name="f38" usageType="active"/>
      <MiningField name="f39" usageType="active"/>
      <MiningField name="f40" usageType="active"/>
      <MiningField name="f41" usageType="active"/>
      <MiningField name="f42" usageType="active"/>
      <MiningField name="f43" usageType="active"/>
      <MiningField name="f44" usageType="active"/>
      <MiningField name="f45" usageType="active"/>
      <MiningField name="f46" usageType="active"/>
      <MiningField name="f47" usageType="active"/>
      <MiningField name="f48" usageType="active"/>
      <MiningField name="f49" usageType="active"/>
      <MiningField name="f50" usageType="active"/>
      <MiningField name="f51" usageType="active"/>
      <MiningField name="f52" usageType="active"/>
      <MiningField name="f53" usageType="active"/>
      <MiningField name="f54" usageType="active"/>
      <MiningField name="f55" usageType="active"/>
      <MiningField name="f56" usageType="active"/>
      <MiningField name="f57" usageType="active"/>
      <MiningField name="f58" usageType="active"/>
      <MiningField name="f59" usageType="active"/>
      <MiningField name="f60" usageType="active"/>
      <MiningField name="f61" usageType="active"/>
      <MiningField name="f62" usageType="active"/>
      <MiningField name="f63" usageType="active"/>
      <MiningField name="f64" usageType="active"/>
      <MiningField name="f65" usageType="active"/>
      <MiningField name="f66" usageType="active"/>
      <MiningField name="f67" usageType="active"/>
     </MiningSchema>
     <Node id="1">
      <True/>
      <Node id="2">
       <SimpleSetPredicate field="f36" booleanOperator="isIn">
        <Array n="6" type="string">&quot;F&quot;   &quot;F1L&quot;   &quot;F1L1&quot;   &quot;FL&quot;   &quot;FL1&quot;   &quot;L&quot;</Array>
       </SimpleSetPredicate>
       <Node id="4">
        <SimplePredicate field="f44" operator="lessOrEqual" value="3.01028050880094"/>
        <Node id="8">
         <SimplePredicate field="f2" operator="lessOrEqual" value="0.5"/>
         <Node id="16">
          <SimplePredicate field="f33" operator="lessOrEqual" value="35.5036228186549"/>
          <Node id="32" score="should_approve">
           <SimpleSetPredicate field="f54" booleanOperator="isIn">
            <Array n="2" type="string">&quot;field_match&quot;   &quot;field mismatch&quot;</Array>
           </SimpleSetPredicate>
          </Node>
          <Node id="33">
           <SimpleSetPredicate field="f54" booleanOperator="isIn">
            <Array n="1" type="string">&quot;no_field&quot;</Array>
           </SimpleSetPredicate>
           <Node id="60" score="should_approve">
            <SimpleSetPredicate field="f13" booleanOperator="isIn">
             <Array n="2" type="string">&quot;F1L&quot;   &quot;FL&quot;</Array>
            </SimpleSetPredicate>
           </Node>
           <Node id="61">
            <SimpleSetPredicate field="f13" booleanOperator="isIn">
             <Array n="5" type="string">&quot;F&quot;   &quot;F1L1&quot;   &quot;FL1&quot;   &quot;L&quot;   &quot;NO_MATCH&quot;</Array>
            </SimpleSetPredicate>
            <Node id="96" score="should_decline">
             <SimplePredicate field="f29" operator="lessOrEqual" value="1.5"/>
            </Node>
            <Node id="97" score="should_approve">
             <SimplePredicate field="f29" operator="greaterThan" value="1.5"/>
            </Node>
           </Node>
          </Node>
         </Node>
         <Node id="17" score="should_decline">
          <SimplePredicate field="f33" operator="greaterThan" value="35.5036228186549"/>
         </Node>
        </Node>
        <Node id="9">
         <SimplePredicate field="f2" operator="greaterThan" value="0.5"/>
         <Node id="18">
          <SimplePredicate field="f21" operator="lessOrEqual" value="0.9"/>
          <Node id="34">
           <SimpleSetPredicate field="f19" booleanOperator="isIn">
            <Array n="8" type="string">&quot;college&quot;   &quot;government&quot;   &quot;hosting&quot;   &quot;library&quot;   &quot;military&quot;   &quot;router&quot;   &quot;school&quot;   &quot;traveler&quot;</Array>
           </SimpleSetPredicate>
           <Node id="62" score="should_decline">
            <SimplePredicate field="f14" operator="lessOrEqual" value="0.115"/>
           </Node>
           <Node id="63" score="should_approve">
            <SimplePredicate field="f14" operator="greaterThan" value="0.115"/>
           </Node>
          </Node>
          <Node id="35">
           <SimpleSetPredicate field="f19" booleanOperator="isIn">
            <Array n="3" type="string">&quot;business&quot;   &quot;cellular&quot;   &quot;residential&quot;</Array>
           </SimpleSetPredicate>
           <Node id="64">
            <SimpleSetPredicate field="f15" booleanOperator="isIn">
             <Array n="1" type="string">&quot;f&quot;</Array>
            </SimpleSetPredicate>
            <Node id="98" score="should_approve">
             <SimplePredicate field="f24" operator="lessOrEqual" value="97"/>
            </Node>
            <Node id="99" score="should_decline">
             <SimplePredicate field="f24" operator="greaterThan" value="97"/>
            </Node>
           </Node>
           <Node id="65" score="should_approve">
            <SimpleSetPredicate field="f15" booleanOperator="isIn">
             <Array n="1" type="string">&quot;t&quot;</Array>
            </SimpleSetPredicate>
           </Node>
          </Node>
         </Node>
         <Node id="19">
          <SimplePredicate field="f21" operator="greaterThan" value="0.9"/>
          <Node id="36" score="should_approve">
           <SimpleSetPredicate field="f67" booleanOperator="isIn">
            <Array n="1" type="string">&quot;Full Match&quot;</Array>
           </SimpleSetPredicate>
          </Node>
          <Node id="37" score="should_decline">
           <SimpleSetPredicate field="f67" booleanOperator="isIn">
            <Array n="5" type="string">&quot;Address Match&quot;   &quot;Missing&quot;   &quot;No Match&quot;   &quot;Unsupported&quot;   &quot;Zip Match&quot;</Array>
           </SimpleSetPredicate>
          </Node>
         </Node>
        </Node>
       </Node>
       <Node id="5">
        <SimplePredicate field="f44" operator="greaterThan" value="3.01028050880094"/>
        <Node id="10">
         <SimpleSetPredicate field="f5" booleanOperator="isIn">
          <Array n="4" type="string">&quot;iPad&quot;   &quot;iPhone&quot;   &quot;Linux&quot;   &quot;Macintosh&quot;</Array>
         </SimpleSetPredicate>
         <Node id="20">
          <SimplePredicate field="f33" operator="lessOrEqual" value="18.8513846048894"/>
          <Node id="38" score="should_approve">
           <SimplePredicate field="f1" operator="lessOrEqual" value="4.83109139504676"/>
          </Node>
          <Node id="39">
           <SimplePredicate field="f1" operator="greaterThan" value="4.83109139504676"/>
           <Node id="66" score="should_decline">
            <SimplePredicate field="f11" operator="lessOrEqual" value="573723.5"/>
           </Node>
           <Node id="67" score="should_approve">
            <SimplePredicate field="f11" operator="greaterThan" value="573723.5"/>
           </Node>
          </Node>
         </Node>
         <Node id="21" score="should_decline">
          <SimplePredicate field="f33" operator="greaterThan" value="18.8513846048894"/>
         </Node>
        </Node>
        <Node id="11">
         <SimpleSetPredicate field="f5" booleanOperator="isIn">
          <Array n="3" type="string">&quot;Other&quot;   &quot;Windows&quot;   &quot;X11&quot;</Array>
         </SimpleSetPredicate>
         <Node id="22">
          <SimplePredicate field="f22" operator="lessOrEqual" value="66.5"/>
          <Node id="40" score="should_approve">
           <SimplePredicate field="f47" operator="lessOrEqual" value="41.935"/>
          </Node>
          <Node id="41" score="should_decline">
           <SimplePredicate field="f47" operator="greaterThan" value="41.935"/>
          </Node>
         </Node>
         <Node id="23">
          <SimplePredicate field="f22" operator="greaterThan" value="66.5"/>
          <Node id="42" score="should_approve">
           <SimplePredicate field="f57" operator="lessOrEqual" value="5.5"/>
          </Node>
          <Node id="43" score="should_decline">
           <SimplePredicate field="f57" operator="greaterThan" value="5.5"/>
          </Node>
         </Node>
        </Node>
       </Node>
      </Node>
      <Node id="3">
       <SimpleSetPredicate field="f36" booleanOperator="isIn">
        <Array n="2" type="string">&quot;NO_EA_NAME&quot;   &quot;NO_MATCH&quot;</Array>
       </SimpleSetPredicate>
       <Node id="6">
        <SimplePredicate field="f47" operator="lessOrEqual" value="57.43"/>
        <Node id="12">
         <SimplePredicate field="f14" operator="lessOrEqual" value="6.495"/>
         <Node id="24">
          <SimplePredicate field="f44" operator="lessOrEqual" value="25.4335451416468"/>
          <Node id="44">
           <SimplePredicate field="f3" operator="lessOrEqual" value="690"/>
           <Node id="68">
            <SimplePredicate field="f46" operator="lessOrEqual" value="2.5"/>
            <Node id="100">
             <SimpleSetPredicate field="f5" booleanOperator="isIn">
              <Array n="5" type="string">&quot;iPad&quot;   &quot;iPhone&quot;   &quot;Linux&quot;   &quot;Macintosh&quot;   &quot;Other&quot;</Array>
             </SimpleSetPredicate>
             <Node id="134">
              <SimplePredicate field="f1" operator="lessOrEqual" value="17.1932081508787"/>
              <Node id="174">
               <SimpleSetPredicate field="f55" booleanOperator="isIn">
                <Array n="2" type="string">&quot;FL&quot;   &quot;L&quot;</Array>
               </SimpleSetPredicate>
               <Node id="214">
                <SimplePredicate field="f41" operator="lessOrEqual" value="7342"/>
                <Node id="252" score="should_approve">
                 <SimplePredicate field="f10" operator="lessOrEqual" value="36.5"/>
                </Node>
                <Node id="253" score="should_decline">
                 <SimplePredicate field="f10" operator="greaterThan" value="36.5"/>
                </Node>
               </Node>
               <Node id="215" score="should_approve">
                <SimplePredicate field="f41" operator="greaterThan" value="7342"/>
               </Node>
              </Node>
              <Node id="175">
               <SimpleSetPredicate field="f55" booleanOperator="isIn">
                <Array n="2" type="string">&quot;F&quot;   &quot;NO_MATCH&quot;</Array>
               </SimpleSetPredicate>
               <Node id="216" score="should_decline">
                <SimplePredicate field="f47" operator="lessOrEqual" value="12.44"/>
               </Node>
               <Node id="217">
                <SimplePredicate field="f47" operator="greaterThan" value="12.44"/>
                <Node id="254" score="should_decline">
                 <SimplePredicate field="f62" operator="lessOrEqual" value="8.5"/>
                </Node>
                <Node id="255">
                 <SimplePredicate field="f62" operator="greaterThan" value="8.5"/>
                 <Node id="286">
                  <SimplePredicate field="f8" operator="lessOrEqual" value="-0.235940274612086"/>
                  <Node id="314" score="should_decline">
                   <SimplePredicate field="f44" operator="lessOrEqual" value="1.21967651753537"/>
                  </Node>
                  <Node id="315" score="should_approve">
                   <SimplePredicate field="f44" operator="greaterThan" value="1.21967651753537"/>
                  </Node>
                 </Node>
                 <Node id="287" score="should_approve">
                  <SimplePredicate field="f8" operator="greaterThan" value="-0.235940274612086"/>
                 </Node>
                </Node>
               </Node>
              </Node>
             </Node>
             <Node id="135" score="should_decline">
              <SimplePredicate field="f1" operator="greaterThan" value="17.1932081508787"/>
             </Node>
            </Node>
            <Node id="101">
             <SimpleSetPredicate field="f5" booleanOperator="isIn">
              <Array n="2" type="string">&quot;Windows&quot;   &quot;X11&quot;</Array>
             </SimpleSetPredicate>
             <Node id="136">
              <SimpleSetPredicate field="f63" booleanOperator="isIn">
               <Array n="1" type="string">&quot;match&quot;</Array>
              </SimpleSetPredicate>
              <Node id="176">
               <SimplePredicate field="f32" operator="lessOrEqual" value="7721.5"/>
               <Node id="218">
                <SimplePredicate field="f17" operator="lessOrEqual" value="1236"/>
                <Node id="256">
                 <SimplePredicate field="f4" operator="lessOrEqual" value="45.5"/>
                 <Node id="288">
                  <SimplePredicate field="f8" operator="lessOrEqual" value="-0.424889023171668"/>
                  <Node id="316" score="should_approve">
                   <SimplePredicate field="f47" operator="lessOrEqual" value="43.5"/>
                  </Node>
                  <Node id="317" score="should_decline">
                   <SimplePredicate field="f47" operator="greaterThan" value="43.5"/>
                  </Node>
                 </Node>
                 <Node id="289" score="should_approve">
                  <SimplePredicate field="f8" operator="greaterThan" value="-0.424889023171668"/>
                 </Node>
                </Node>
                <Node id="257">
                 <SimplePredicate field="f4" operator="greaterThan" value="45.5"/>
                 <Node id="290" score="should_decline">
                  <SimplePredicate field="f4" operator="lessOrEqual" value="49.5"/>
                 </Node>
                 <Node id="291" score="should_approve">
                  <SimplePredicate field="f4" operator="greaterThan" value="49.5"/>
                 </Node>
                </Node>
               </Node>
               <Node id="219">
                <SimplePredicate field="f17" operator="greaterThan" value="1236"/>
                <Node id="258" score="should_approve">
                 <SimpleSetPredicate field="f15" booleanOperator="isIn">
                  <Array n="1" type="string">&quot;f&quot;</Array>
                 </SimpleSetPredicate>
                </Node>
                <Node id="259">
                 <SimpleSetPredicate field="f15" booleanOperator="isIn">
                  <Array n="1" type="string">&quot;t&quot;</Array>
                 </SimpleSetPredicate>
                 <Node id="292" score="should_decline">
                  <SimplePredicate field="f18" operator="lessOrEqual" value="78"/>
                 </Node>
                 <Node id="293">
                  <SimplePredicate field="f18" operator="greaterThan" value="78"/>
                  <Node id="318" score="should_decline">
                   <SimplePredicate field="f33" operator="lessOrEqual" value="3.58018216947282"/>
                  </Node>
                  <Node id="319" score="should_approve">
                   <SimplePredicate field="f33" operator="greaterThan" value="3.58018216947282"/>
                  </Node>
                 </Node>
                </Node>
               </Node>
              </Node>
              <Node id="177" score="should_decline">
               <SimplePredicate field="f32" operator="greaterThan" value="7721.5"/>
              </Node>
             </Node>
             <Node id="137">
              <SimpleSetPredicate field="f63" booleanOperator="isIn">
               <Array n="2" type="string">&quot;mismatch&quot;   &quot;similar&quot;</Array>
              </SimpleSetPredicate>
              <Node id="178" score="should_approve">
               <SimplePredicate field="f43" operator="lessOrEqual" value="0.572879754311365"/>
              </Node>
              <Node id="179">
               <SimplePredicate field="f43" operator="greaterThan" value="0.572879754311365"/>
               <Node id="220" score="should_approve">
                <SimplePredicate field="f14" operator="lessOrEqual" value="0.17"/>
               </Node>
               <Node id="221">
                <SimplePredicate field="f14" operator="greaterThan" value="0.17"/>
                <Node id="260">
                 <SimplePredicate field="f24" operator="lessOrEqual" value="78"/>
                 <Node id="294" score="should_decline">
                  <SimplePredicate field="f32" operator="lessOrEqual" value="7230"/>
                 </Node>
                 <Node id="295" score="should_approve">
                  <SimplePredicate field="f32" operator="greaterThan" value="7230"/>
                 </Node>
                </Node>
                <Node id="261" score="should_decline">
                 <SimplePredicate field="f24" operator="greaterThan" value="78"/>
                </Node>
               </Node>
              </Node>
             </Node>
            </Node>
           </Node>
           <Node id="69">
            <SimplePredicate field="f46" operator="greaterThan" value="2.5"/>
            <Node id="102">
             <SimplePredicate field="f43" operator="lessOrEqual" value="20.6077616267144"/>
             <Node id="138">
              <SimplePredicate field="f43" operator="lessOrEqual" value="3.64450127877238"/>
              <Node id="180">
               <SimplePredicate field="f21" operator="lessOrEqual" value="1.5"/>
               <Node id="222">
                <SimplePredicate field="f47" operator="lessOrEqual" value="32.3025"/>
                <Node id="262" score="should_approve">
                 <SimplePredicate field="f2" operator="lessOrEqual" value="3.5"/>
                </Node>
                <Node id="263">
                 <SimplePredicate field="f2" operator="greaterThan" value="3.5"/>
                 <Node id="296" score="should_approve">
                  <SimplePredicate field="f4" operator="lessOrEqual" value="24.5"/>
                 </Node>
                 <Node id="297">
                  <SimplePredicate field="f4" operator="greaterThan" value="24.5"/>
                  <Node id="320" score="should_approve">
                   <SimplePredicate field="f29" operator="lessOrEqual" value="3"/>
                  </Node>
                  <Node id="321" score="should_decline">
                   <SimplePredicate field="f29" operator="greaterThan" value="3"/>
                  </Node>
                 </Node>
                </Node>
               </Node>
               <Node id="223">
                <SimplePredicate field="f47" operator="greaterThan" value="32.3025"/>
                <Node id="264">
                 <SimplePredicate field="f64" operator="lessOrEqual" value="137003"/>
                 <Node id="298" score="should_approve">
                  <SimplePredicate field="f22" operator="lessOrEqual" value="49"/>
                 </Node>
                 <Node id="299">
                  <SimplePredicate field="f22" operator="greaterThan" value="49"/>
                  <Node id="322" score="should_decline">
                   <SimplePredicate field="f62" operator="lessOrEqual" value="13.5"/>
                  </Node>
                  <Node id="323">
                   <SimplePredicate field="f62" operator="greaterThan" value="13.5"/>
                   <Node id="330">
                    <SimplePredicate field="f11" operator="lessOrEqual" value="494898.5"/>
                    <Node id="334" score="should_decline">
                     <SimplePredicate field="f32" operator="lessOrEqual" value="5400"/>
                    </Node>
                    <Node id="335" score="should_approve">
                     <SimplePredicate field="f32" operator="greaterThan" value="5400"/>
                    </Node>
                   </Node>
                   <Node id="331" score="should_approve">
                    <SimplePredicate field="f11" operator="greaterThan" value="494898.5"/>
                   </Node>
                  </Node>
                 </Node>
                </Node>
                <Node id="265">
                 <SimplePredicate field="f64" operator="greaterThan" value="137003"/>
                 <Node id="300" score="should_approve">
                  <SimplePredicate field="f22" operator="lessOrEqual" value="63"/>
                 </Node>
                 <Node id="301">
                  <SimplePredicate field="f22" operator="greaterThan" value="63"/>
                  <Node id="324">
                   <SimplePredicate field="f56" operator="lessOrEqual" value="199.5"/>
                   <Node id="332" score="should_decline">
                    <SimplePredicate field="f24" operator="lessOrEqual" value="70.5"/>
                   </Node>
                   <Node id="333" score="should_approve">
                    <SimplePredicate field="f24" operator="greaterThan" value="70.5"/>
                   </Node>
                  </Node>
                  <Node id="325" score="should_decline">
                   <SimplePredicate field="f56" operator="greaterThan" value="199.5"/>
                  </Node>
                 </Node>
                </Node>
               </Node>
              </Node>
              <Node id="181">
               <SimplePredicate field="f21" operator="greaterThan" value="1.5"/>
               <Node id="224" score="should_approve">
                <SimplePredicate field="f41" operator="lessOrEqual" value="7695.5"/>
               </Node>
               <Node id="225" score="should_decline">
                <SimplePredicate field="f41" operator="greaterThan" value="7695.5"/>
               </Node>
              </Node>
             </Node>
             <Node id="139">
              <SimplePredicate field="f43" operator="greaterThan" value="3.64450127877238"/>
              <Node id="182">
               <SimplePredicate field="f43" operator="lessOrEqual" value="4.44664031620554"/>
               <Node id="226" score="should_approve">
                <SimplePredicate field="f47" operator="lessOrEqual" value="26.58"/>
               </Node>
               <Node id="227" score="should_decline">
                <SimplePredicate field="f47" operator="greaterThan" value="26.58"/>
               </Node>
              </Node>
              <Node id="183">
               <SimplePredicate field="f43" operator="greaterThan" value="4.44664031620554"/>
               <Node id="228" score="should_approve">
                <SimplePredicate field="f2" operator="lessOrEqual" value="1"/>
               </Node>
               <Node id="229">
                <SimplePredicate field="f2" operator="greaterThan" value="1"/>
                <Node id="266" score="should_decline">
                 <SimplePredicate field="f62" operator="lessOrEqual" value="14.5"/>
                </Node>
                <Node id="267" score="should_approve">
                 <SimplePredicate field="f62" operator="greaterThan" value="14.5"/>
                </Node>
               </Node>
              </Node>
             </Node>
            </Node>
            <Node id="103">
             <SimplePredicate field="f43" operator="greaterThan" value="20.6077616267144"/>
             <Node id="140" score="should_decline">
              <SimplePredicate field="f12" operator="lessOrEqual" value="2344.5"/>
             </Node>
             <Node id="141" score="should_approve">
              <SimplePredicate field="f12" operator="greaterThan" value="2344.5"/>
             </Node>
            </Node>
           </Node>
          </Node>
          <Node id="45" score="should_decline">
           <SimplePredicate field="f3" operator="greaterThan" value="690"/>
          </Node>
         </Node>
         <Node id="25">
          <SimplePredicate field="f44" operator="greaterThan" value="25.4335451416468"/>
          <Node id="46">
           <SimplePredicate field="f64" operator="lessOrEqual" value="548776"/>
           <Node id="70">
            <SimpleSetPredicate field="f66" booleanOperator="isIn">
             <Array n="2" type="string">&quot;all_lowercase&quot;   &quot;all_uppercase&quot;</Array>
            </SimpleSetPredicate>
            <Node id="104">
             <SimplePredicate field="f18" operator="lessOrEqual" value="15.5"/>
             <Node id="142" score="should_approve">
              <SimplePredicate field="f41" operator="lessOrEqual" value="7251.5"/>
             </Node>
             <Node id="143" score="should_decline">
              <SimplePredicate field="f41" operator="greaterThan" value="7251.5"/>
             </Node>
            </Node>
            <Node id="105" score="should_decline">
             <SimplePredicate field="f18" operator="greaterThan" value="15.5"/>
            </Node>
           </Node>
           <Node id="71" score="should_approve">
            <SimpleSetPredicate field="f66" booleanOperator="isIn">
             <Array n="4" type="string">&quot;capitalized&quot;   &quot;missing&quot;   &quot;other&quot;   &quot;prefix_cap&quot;</Array>
            </SimpleSetPredicate>
           </Node>
          </Node>
          <Node id="47">
           <SimplePredicate field="f64" operator="greaterThan" value="548776"/>
           <Node id="72" score="should_decline">
            <SimplePredicate field="f17" operator="lessOrEqual" value="0.5"/>
           </Node>
           <Node id="73" score="should_approve">
            <SimplePredicate field="f17" operator="greaterThan" value="0.5"/>
           </Node>
          </Node>
         </Node>
        </Node>
        <Node id="13">
         <SimplePredicate field="f14" operator="greaterThan" value="6.495"/>
         <Node id="26">
          <SimplePredicate field="f10" operator="lessOrEqual" value="0.5"/>
          <Node id="48">
           <SimplePredicate field="f12" operator="lessOrEqual" value="5489"/>
           <Node id="74">
            <SimplePredicate field="f44" operator="lessOrEqual" value="2.66729797979798"/>
            <Node id="106">
             <SimplePredicate field="f28" operator="lessOrEqual" value="703.5"/>
             <Node id="144">
              <SimplePredicate field="f21" operator="lessOrEqual" value="0.68"/>
              <Node id="184">
               <SimpleSetPredicate field="f15" booleanOperator="isIn">
                <Array n="1" type="string">&quot;f&quot;</Array>
               </SimpleSetPredicate>
               <Node id="230">
                <SimplePredicate field="f14" operator="lessOrEqual" value="63.905"/>
                <Node id="268">
                 <SimplePredicate field="f46" operator="lessOrEqual" value="3.5"/>
                 <Node id="302" score="should_decline">
                  <SimplePredicate field="f57" operator="lessOrEqual" value="3.5"/>
                 </Node>
                 <Node id="303">
                  <SimplePredicate field="f57" operator="greaterThan" value="3.5"/>
                  <Node id="326" score="should_approve">
                   <SimplePredicate field="f58" operator="lessOrEqual" value="17.5"/>
                  </Node>
                  <Node id="327" score="should_decline">
                   <SimplePredicate field="f58" operator="greaterThan" value="17.5"/>
                  </Node>
                 </Node>
                </Node>
                <Node id="269">
                 <SimplePredicate field="f46" operator="greaterThan" value="3.5"/>
                 <Node id="304" score="should_approve">
                  <SimplePredicate field="f14" operator="lessOrEqual" value="44.335"/>
                 </Node>
                 <Node id="305" score="should_decline">
                  <SimplePredicate field="f14" operator="greaterThan" value="44.335"/>
                 </Node>
                </Node>
               </Node>
               <Node id="231" score="should_approve">
                <SimplePredicate field="f14" operator="greaterThan" value="63.905"/>
               </Node>
              </Node>
              <Node id="185">
               <SimpleSetPredicate field="f15" booleanOperator="isIn">
                <Array n="1" type="string">&quot;t&quot;</Array>
               </SimpleSetPredicate>
               <Node id="232" score="should_decline">
                <SimplePredicate field="f32" operator="lessOrEqual" value="2924.5"/>
               </Node>
               <Node id="233">
                <SimplePredicate field="f32" operator="greaterThan" value="2924.5"/>
                <Node id="270">
                 <SimpleSetPredicate field="f5" booleanOperator="isIn">
                  <Array n="1" type="string">&quot;iPhone&quot;</Array>
                 </SimpleSetPredicate>
                 <Node id="306" score="should_approve">
                  <SimplePredicate field="f33" operator="lessOrEqual" value="11.70926017549"/>
                 </Node>
                 <Node id="307" score="should_decline">
                  <SimplePredicate field="f33" operator="greaterThan" value="11.70926017549"/>
                 </Node>
                </Node>
                <Node id="271" score="should_approve">
                 <SimpleSetPredicate field="f5" booleanOperator="isIn">
                  <Array n="6" type="string">&quot;iPad&quot;   &quot;Linux&quot;   &quot;Macintosh&quot;   &quot;Other&quot;   &quot;Windows&quot;   &quot;X11&quot;</Array>
                 </SimpleSetPredicate>
                </Node>
               </Node>
              </Node>
             </Node>
             <Node id="145">
              <SimplePredicate field="f21" operator="greaterThan" value="0.68"/>
              <Node id="186" score="should_decline">
               <SimplePredicate field="f29" operator="lessOrEqual" value="2.5"/>
              </Node>
              <Node id="187" score="should_approve">
               <SimplePredicate field="f29" operator="greaterThan" value="2.5"/>
              </Node>
             </Node>
            </Node>
            <Node id="107">
             <SimplePredicate field="f28" operator="greaterThan" value="703.5"/>
             <Node id="146">
              <SimplePredicate field="f11" operator="lessOrEqual" value="228841"/>
              <Node id="188" score="should_decline">
               <SimplePredicate field="f21" operator="lessOrEqual" value="1.5"/>
              </Node>
              <Node id="189" score="should_approve">
               <SimplePredicate field="f21" operator="greaterThan" value="1.5"/>
              </Node>
             </Node>
             <Node id="147" score="should_decline">
              <SimplePredicate field="f11" operator="greaterThan" value="228841"/>
             </Node>
            </Node>
           </Node>
           <Node id="75">
            <SimplePredicate field="f44" operator="greaterThan" value="2.66729797979798"/>
            <Node id="108">
             <SimpleSetPredicate field="f19" booleanOperator="isIn">
              <Array n="9" type="string">&quot;cellular&quot;   &quot;college&quot;   &quot;government&quot;   &quot;hosting&quot;   &quot;library&quot;   &quot;military&quot;   &quot;residential&quot;   &quot;router&quot;   &quot;school&quot;</Array>
             </SimpleSetPredicate>
             <Node id="148" score="should_approve">
              <SimplePredicate field="f56" operator="lessOrEqual" value="17.5"/>
             </Node>
             <Node id="149">
              <SimplePredicate field="f56" operator="greaterThan" value="17.5"/>
              <Node id="190">
               <SimplePredicate field="f46" operator="lessOrEqual" value="9"/>
               <Node id="234">
                <SimplePredicate field="f47" operator="lessOrEqual" value="55.5166666666667"/>
                <Node id="272">
                 <SimplePredicate field="f1" operator="lessOrEqual" value="1.56684269038355"/>
                 <Node id="308" score="should_decline">
                  <SimplePredicate field="f27" operator="lessOrEqual" value="163"/>
                 </Node>
                 <Node id="309" score="should_approve">
                  <SimplePredicate field="f27" operator="greaterThan" value="163"/>
                 </Node>
                </Node>
                <Node id="273" score="should_decline">
                 <SimplePredicate field="f1" operator="greaterThan" value="1.56684269038355"/>
                </Node>
               </Node>
               <Node id="235">
                <SimplePredicate field="f47" operator="greaterThan" value="55.5166666666667"/>
                <Node id="274" score="should_approve">
                 <SimplePredicate field="f57" operator="lessOrEqual" value="2.5"/>
                </Node>
                <Node id="275" score="should_decline">
                 <SimplePredicate field="f57" operator="greaterThan" value="2.5"/>
                </Node>
               </Node>
              </Node>
              <Node id="191">
               <SimplePredicate field="f46" operator="greaterThan" value="9"/>
               <Node id="236" score="should_decline">
                <SimplePredicate field="f43" operator="lessOrEqual" value="49.0268064771673"/>
               </Node>
               <Node id="237" score="should_approve">
                <SimplePredicate field="f43" operator="greaterThan" value="49.0268064771673"/>
               </Node>
              </Node>
             </Node>
            </Node>
            <Node id="109" score="should_approve">
             <SimpleSetPredicate field="f19" booleanOperator="isIn">
              <Array n="2" type="string">&quot;business&quot;   &quot;traveler&quot;</Array>
             </SimpleSetPredicate>
            </Node>
           </Node>
          </Node>
          <Node id="49">
           <SimplePredicate field="f12" operator="greaterThan" value="5489"/>
           <Node id="76">
            <SimpleSetPredicate field="f13" booleanOperator="isIn">
             <Array n="1" type="string">&quot;F1L1&quot;</Array>
            </SimpleSetPredicate>
            <Node id="110" score="should_approve">
             <SimplePredicate field="f1" operator="lessOrEqual" value="4.83109139504676"/>
            </Node>
            <Node id="111">
             <SimplePredicate field="f1" operator="greaterThan" value="4.83109139504676"/>
             <Node id="150" score="should_decline">
              <SimplePredicate field="f12" operator="lessOrEqual" value="9180"/>
             </Node>
             <Node id="151" score="should_approve">
              <SimplePredicate field="f12" operator="greaterThan" value="9180"/>
             </Node>
            </Node>
           </Node>
           <Node id="77" score="should_approve">
            <SimpleSetPredicate field="f13" booleanOperator="isIn">
             <Array n="6" type="string">&quot;F&quot;   &quot;F1L&quot;   &quot;FL&quot;   &quot;FL1&quot;   &quot;L&quot;   &quot;NO_MATCH&quot;</Array>
            </SimpleSetPredicate>
           </Node>
          </Node>
         </Node>
         <Node id="27">
          <SimplePredicate field="f10" operator="greaterThan" value="0.5"/>
          <Node id="50">
           <SimpleSetPredicate field="f54" booleanOperator="isIn">
            <Array n="1" type="string">&quot;field mismatch&quot;</Array>
           </SimpleSetPredicate>
           <Node id="78">
            <SimplePredicate field="f17" operator="lessOrEqual" value="1687.5"/>
            <Node id="112">
             <SimplePredicate field="f10" operator="lessOrEqual" value="391.5"/>
             <Node id="152">
              <SimplePredicate field="f62" operator="lessOrEqual" value="14.5"/>
              <Node id="192">
               <SimplePredicate field="f47" operator="lessOrEqual" value="57.105"/>
               <Node id="238">
                <SimplePredicate field="f47" operator="lessOrEqual" value="17.41"/>
                <Node id="276" score="should_approve">
                 <SimplePredicate field="f14" operator="lessOrEqual" value="52.92"/>
                </Node>
                <Node id="277" score="should_decline">
                 <SimplePredicate field="f14" operator="greaterThan" value="52.92"/>
                </Node>
               </Node>
               <Node id="239" score="should_decline">
                <SimplePredicate field="f47" operator="greaterThan" value="17.41"/>
               </Node>
              </Node>
              <Node id="193" score="should_approve">
               <SimplePredicate field="f47" operator="greaterThan" value="57.105"/>
              </Node>
             </Node>
             <Node id="153">
              <SimplePredicate field="f62" operator="greaterThan" value="14.5"/>
              <Node id="194" score="should_approve">
               <SimplePredicate field="f29" operator="lessOrEqual" value="1.5"/>
              </Node>
              <Node id="195" score="should_decline">
               <SimplePredicate field="f29" operator="greaterThan" value="1.5"/>
              </Node>
             </Node>
            </Node>
            <Node id="113" score="should_approve">
             <SimplePredicate field="f10" operator="greaterThan" value="391.5"/>
            </Node>
           </Node>
           <Node id="79">
            <SimplePredicate field="f17" operator="greaterThan" value="1687.5"/>
            <Node id="114">
             <SimplePredicate field="f59" operator="lessOrEqual" value="11"/>
             <Node id="154">
              <SimplePredicate field="f32" operator="lessOrEqual" value="7440.5"/>
              <Node id="196" score="should_approve">
               <SimplePredicate field="f18" operator="lessOrEqual" value="6"/>
              </Node>
              <Node id="197" score="should_decline">
               <SimplePredicate field="f18" operator="greaterThan" value="6"/>
              </Node>
             </Node>
             <Node id="155" score="should_approve">
              <SimplePredicate field="f32" operator="greaterThan" value="7440.5"/>
             </Node>
            </Node>
            <Node id="115">
             <SimplePredicate field="f59" operator="greaterThan" value="11"/>
             <Node id="156" score="should_decline">
              <SimplePredicate field="f11" operator="lessOrEqual" value="138884.5"/>
             </Node>
             <Node id="157" score="should_approve">
              <SimplePredicate field="f11" operator="greaterThan" value="138884.5"/>
             </Node>
            </Node>
           </Node>
          </Node>
          <Node id="51">
           <SimpleSetPredicate field="f54" booleanOperator="isIn">
            <Array n="2" type="string">&quot;field_match&quot;   &quot;no_field&quot;</Array>
           </SimpleSetPredicate>
           <Node id="80">
            <SimplePredicate field="f18" operator="lessOrEqual" value="8.5"/>
            <Node id="116" score="should_approve">
             <SimplePredicate field="f33" operator="lessOrEqual" value="11.2658357696056"/>
            </Node>
            <Node id="117" score="should_decline">
             <SimplePredicate field="f33" operator="greaterThan" value="11.2658357696056"/>
            </Node>
           </Node>
           <Node id="81">
            <SimplePredicate field="f18" operator="greaterThan" value="8.5"/>
            <Node id="118" score="should_decline">
             <SimplePredicate field="f22" operator="lessOrEqual" value="50.5"/>
            </Node>
            <Node id="119">
             <SimplePredicate field="f22" operator="greaterThan" value="50.5"/>
             <Node id="158">
              <SimplePredicate field="f56" operator="lessOrEqual" value="32"/>
              <Node id="198" score="should_approve">
               <SimplePredicate field="f24" operator="lessOrEqual" value="89"/>
              </Node>
              <Node id="199" score="should_decline">
               <SimplePredicate field="f24" operator="greaterThan" value="89"/>
              </Node>
             </Node>
             <Node id="159" score="should_decline">
              <SimplePredicate field="f56" operator="greaterThan" value="32"/>
             </Node>
            </Node>
           </Node>
          </Node>
         </Node>
        </Node>
       </Node>
       <Node id="7">
        <SimplePredicate field="f47" operator="greaterThan" value="57.43"/>
        <Node id="14">
         <SimplePredicate field="f28" operator="lessOrEqual" value="471"/>
         <Node id="28">
          <SimplePredicate field="f59" operator="lessOrEqual" value="0.5"/>
          <Node id="52">
           <SimplePredicate field="f21" operator="lessOrEqual" value="0.9"/>
           <Node id="82">
            <SimpleSetPredicate field="f65" booleanOperator="isIn">
             <Array n="1" type="string">&quot;all_lowercase&quot;</Array>
            </SimpleSetPredicate>
            <Node id="120">
             <SimplePredicate field="f4" operator="lessOrEqual" value="12"/>
             <Node id="160" score="should_decline">
              <SimplePredicate field="f4" operator="lessOrEqual" value="3"/>
             </Node>
             <Node id="161">
              <SimplePredicate field="f4" operator="greaterThan" value="3"/>
              <Node id="200" score="should_approve">
               <SimplePredicate field="f14" operator="lessOrEqual" value="3.85"/>
              </Node>
              <Node id="201" score="should_decline">
               <SimplePredicate field="f14" operator="greaterThan" value="3.85"/>
              </Node>
             </Node>
            </Node>
            <Node id="121" score="should_approve">
             <SimplePredicate field="f4" operator="greaterThan" value="12"/>
            </Node>
           </Node>
           <Node id="83">
            <SimpleSetPredicate field="f65" booleanOperator="isIn">
             <Array n="5" type="string">&quot;all_uppercase&quot;   &quot;capitalized&quot;   &quot;missing&quot;   &quot;other&quot;   &quot;prefix_cap&quot;</Array>
            </SimpleSetPredicate>
            <Node id="122">
             <SimplePredicate field="f45" operator="lessOrEqual" value="3.5"/>
             <Node id="162">
              <SimplePredicate field="f46" operator="lessOrEqual" value="4.5"/>
              <Node id="202">
               <SimplePredicate field="f14" operator="lessOrEqual" value="35.92"/>
               <Node id="240" score="should_decline">
                <SimplePredicate field="f43" operator="lessOrEqual" value="0.493956647687543"/>
               </Node>
               <Node id="241">
                <SimplePredicate field="f43" operator="greaterThan" value="0.493956647687543"/>
                <Node id="278">
                 <SimpleSetPredicate field="f49" booleanOperator="isIn">
                  <Array n="2" type="string">&quot;field_match&quot;   &quot;field mismatch&quot;</Array>
                 </SimpleSetPredicate>
                 <Node id="310" score="should_approve">
                  <SimpleSetPredicate field="f36" booleanOperator="isIn">
                   <Array n="1" type="string">&quot;NO_EA_NAME&quot;</Array>
                  </SimpleSetPredicate>
                 </Node>
                 <Node id="311">
                  <SimpleSetPredicate field="f36" booleanOperator="isIn">
                   <Array n="7" type="string">&quot;F&quot;   &quot;F1L&quot;   &quot;F1L1&quot;   &quot;FL&quot;   &quot;FL1&quot;   &quot;L&quot;   &quot;NO_MATCH&quot;</Array>
                  </SimpleSetPredicate>
                  <Node id="328" score="should_decline">
                   <SimplePredicate field="f41" operator="lessOrEqual" value="6235.5"/>
                  </Node>
                  <Node id="329" score="should_approve">
                   <SimplePredicate field="f41" operator="greaterThan" value="6235.5"/>
                  </Node>
                 </Node>
                </Node>
                <Node id="279" score="should_decline">
                 <SimpleSetPredicate field="f49" booleanOperator="isIn">
                  <Array n="1" type="string">&quot;no_field&quot;</Array>
                 </SimpleSetPredicate>
                </Node>
               </Node>
              </Node>
              <Node id="203">
               <SimplePredicate field="f14" operator="greaterThan" value="35.92"/>
               <Node id="242" score="should_approve">
                <SimpleSetPredicate field="f37" booleanOperator="isIn">
                 <Array n="1" type="string">&quot;MATCH&quot;</Array>
                </SimpleSetPredicate>
               </Node>
               <Node id="243" score="should_decline">
                <SimpleSetPredicate field="f37" booleanOperator="isIn">
                 <Array n="2" type="string">&quot;NO_EA_COUNTRY&quot;   &quot;NO_MATCH&quot;</Array>
                </SimpleSetPredicate>
               </Node>
              </Node>
             </Node>
             <Node id="163" score="should_approve">
              <SimplePredicate field="f46" operator="greaterThan" value="4.5"/>
             </Node>
            </Node>
            <Node id="123" score="should_decline">
             <SimplePredicate field="f45" operator="greaterThan" value="3.5"/>
            </Node>
           </Node>
          </Node>
          <Node id="53" score="should_decline">
           <SimplePredicate field="f21" operator="greaterThan" value="0.9"/>
          </Node>
         </Node>
         <Node id="29">
          <SimplePredicate field="f59" operator="greaterThan" value="0.5"/>
          <Node id="54">
           <SimplePredicate field="f12" operator="lessOrEqual" value="4428.5"/>
           <Node id="84" score="should_decline">
            <SimplePredicate field="f17" operator="lessOrEqual" value="378.5"/>
           </Node>
           <Node id="85">
            <SimplePredicate field="f17" operator="greaterThan" value="378.5"/>
            <Node id="124" score="should_approve">
             <SimplePredicate field="f58" operator="lessOrEqual" value="4.5"/>
            </Node>
            <Node id="125">
             <SimplePredicate field="f58" operator="greaterThan" value="4.5"/>
             <Node id="164">
              <SimpleSetPredicate field="f13" booleanOperator="isIn">
               <Array n="1" type="string">&quot;FL&quot;</Array>
              </SimpleSetPredicate>
              <Node id="204" score="should_decline">
               <SimplePredicate field="f33" operator="lessOrEqual" value="15.945593606014"/>
              </Node>
              <Node id="205" score="should_approve">
               <SimplePredicate field="f33" operator="greaterThan" value="15.945593606014"/>
              </Node>
             </Node>
             <Node id="165" score="should_decline">
              <SimpleSetPredicate field="f13" booleanOperator="isIn">
               <Array n="6" type="string">&quot;F&quot;   &quot;F1L&quot;   &quot;F1L1&quot;   &quot;FL1&quot;   &quot;L&quot;   &quot;NO_MATCH&quot;</Array>
              </SimpleSetPredicate>
             </Node>
            </Node>
           </Node>
          </Node>
          <Node id="55">
           <SimplePredicate field="f12" operator="greaterThan" value="4428.5"/>
           <Node id="86" score="should_decline">
            <SimpleSetPredicate field="f66" booleanOperator="isIn">
             <Array n="1" type="string">&quot;all_lowercase&quot;</Array>
            </SimpleSetPredicate>
           </Node>
           <Node id="87" score="should_approve">
            <SimpleSetPredicate field="f66" booleanOperator="isIn">
             <Array n="5" type="string">&quot;all_uppercase&quot;   &quot;capitalized&quot;   &quot;missing&quot;   &quot;other&quot;   &quot;prefix_cap&quot;</Array>
            </SimpleSetPredicate>
           </Node>
          </Node>
         </Node>
        </Node>
        <Node id="15">
         <SimplePredicate field="f28" operator="greaterThan" value="471"/>
         <Node id="30">
          <SimpleSetPredicate field="f13" booleanOperator="isIn">
           <Array n="3" type="string">&quot;F1L&quot;   &quot;FL&quot;   &quot;L&quot;</Array>
          </SimpleSetPredicate>
          <Node id="56">
           <SimpleSetPredicate field="f37" booleanOperator="isIn">
            <Array n="1" type="string">&quot;MATCH&quot;</Array>
           </SimpleSetPredicate>
           <Node id="88" score="should_approve">
            <SimplePredicate field="f14" operator="lessOrEqual" value="53.05"/>
           </Node>
           <Node id="89" score="should_decline">
            <SimplePredicate field="f14" operator="greaterThan" value="53.05"/>
           </Node>
          </Node>
          <Node id="57">
           <SimpleSetPredicate field="f37" booleanOperator="isIn">
            <Array n="2" type="string">&quot;NO_EA_COUNTRY&quot;   &quot;NO_MATCH&quot;</Array>
           </SimpleSetPredicate>
           <Node id="90">
            <SimpleSetPredicate field="f19" booleanOperator="isIn">
             <Array n="8" type="string">&quot;business&quot;   &quot;cellular&quot;   &quot;government&quot;   &quot;library&quot;   &quot;military&quot;   &quot;residential&quot;   &quot;router&quot;   &quot;school&quot;</Array>
            </SimpleSetPredicate>
            <Node id="126">
             <SimplePredicate field="f3" operator="lessOrEqual" value="720"/>
             <Node id="166" score="should_approve">
              <SimplePredicate field="f64" operator="lessOrEqual" value="92638"/>
             </Node>
             <Node id="167">
              <SimplePredicate field="f64" operator="greaterThan" value="92638"/>
              <Node id="206" score="should_decline">
               <SimplePredicate field="f41" operator="lessOrEqual" value="7395.5"/>
              </Node>
              <Node id="207">
               <SimplePredicate field="f41" operator="greaterThan" value="7395.5"/>
               <Node id="244">
                <SimplePredicate field="f18" operator="lessOrEqual" value="9.5"/>
                <Node id="280" score="should_decline">
                 <SimplePredicate field="f4" operator="lessOrEqual" value="8.5"/>
                </Node>
                <Node id="281" score="should_approve">
                 <SimplePredicate field="f4" operator="greaterThan" value="8.5"/>
                </Node>
               </Node>
               <Node id="245" score="should_decline">
                <SimplePredicate field="f18" operator="greaterThan" value="9.5"/>
               </Node>
              </Node>
             </Node>
            </Node>
            <Node id="127" score="should_approve">
             <SimplePredicate field="f3" operator="greaterThan" value="720"/>
            </Node>
           </Node>
           <Node id="91" score="should_approve">
            <SimpleSetPredicate field="f19" booleanOperator="isIn">
             <Array n="3" type="string">&quot;college&quot;   &quot;hosting&quot;   &quot;traveler&quot;</Array>
            </SimpleSetPredicate>
           </Node>
          </Node>
         </Node>
         <Node id="31">
          <SimpleSetPredicate field="f13" booleanOperator="isIn">
           <Array n="4" type="string">&quot;F&quot;   &quot;F1L1&quot;   &quot;FL1&quot;   &quot;NO_MATCH&quot;</Array>
          </SimpleSetPredicate>
          <Node id="58">
           <SimplePredicate field="f46" operator="lessOrEqual" value="13.5"/>
           <Node id="92">
            <SimpleSetPredicate field="f6" booleanOperator="isIn">
             <Array n="1" type="string">&quot;IE&quot;</Array>
            </SimpleSetPredicate>
            <Node id="128" score="should_approve">
             <SimplePredicate field="f44" operator="lessOrEqual" value="2.58467162515469"/>
            </Node>
            <Node id="129" score="should_decline">
             <SimplePredicate field="f44" operator="greaterThan" value="2.58467162515469"/>
            </Node>
           </Node>
           <Node id="93">
            <SimpleSetPredicate field="f6" booleanOperator="isIn">
             <Array n="6" type="string">&quot;Android&quot;   &quot;Chrome&quot;   &quot;Firefox&quot;   &quot;Opera&quot;   &quot;Other&quot;   &quot;Safari&quot;</Array>
            </SimpleSetPredicate>
            <Node id="130">
             <SimplePredicate field="f8" operator="lessOrEqual" value="0.26431474417936"/>
             <Node id="168">
              <SimplePredicate field="f23" operator="lessOrEqual" value="56"/>
              <Node id="208">
               <SimplePredicate field="f1" operator="lessOrEqual" value="95.4545454545455"/>
               <Node id="246">
                <SimpleSetPredicate field="f37" booleanOperator="isIn">
                 <Array n="1" type="string">&quot;MATCH&quot;</Array>
                </SimpleSetPredicate>
                <Node id="282" score="should_decline">
                 <SimplePredicate field="f62" operator="lessOrEqual" value="21"/>
                </Node>
                <Node id="283">
                 <SimplePredicate field="f62" operator="greaterThan" value="21"/>
                 <Node id="312" score="should_approve">
                  <SimplePredicate field="f1" operator="lessOrEqual" value="1.78857218040572"/>
                 </Node>
                 <Node id="313" score="should_decline">
                  <SimplePredicate field="f1" operator="greaterThan" value="1.78857218040572"/>
                 </Node>
                </Node>
               </Node>
               <Node id="247" score="should_decline">
                <SimpleSetPredicate field="f37" booleanOperator="isIn">
                 <Array n="2" type="string">&quot;NO_EA_COUNTRY&quot;   &quot;NO_MATCH&quot;</Array>
                </SimpleSetPredicate>
               </Node>
              </Node>
              <Node id="209">
               <SimplePredicate field="f1" operator="greaterThan" value="95.4545454545455"/>
               <Node id="248" score="should_decline">
                <SimplePredicate field="f23" operator="lessOrEqual" value="23.5"/>
               </Node>
               <Node id="249" score="should_approve">
                <SimplePredicate field="f23" operator="greaterThan" value="23.5"/>
               </Node>
              </Node>
             </Node>
             <Node id="169">
              <SimplePredicate field="f23" operator="greaterThan" value="56"/>
              <Node id="210" score="should_approve">
               <SimplePredicate field="f23" operator="lessOrEqual" value="60"/>
              </Node>
              <Node id="211" score="should_decline">
               <SimplePredicate field="f23" operator="greaterThan" value="60"/>
              </Node>
             </Node>
            </Node>
            <Node id="131">
             <SimplePredicate field="f8" operator="greaterThan" value="0.26431474417936"/>
             <Node id="170" score="should_approve">
              <SimplePredicate field="f25" operator="lessOrEqual" value="88.5"/>
             </Node>
             <Node id="171">
              <SimplePredicate field="f25" operator="greaterThan" value="88.5"/>
              <Node id="212" score="should_approve">
               <SimplePredicate field="f44" operator="lessOrEqual" value="0.91728855721393"/>
              </Node>
              <Node id="213">
               <SimplePredicate field="f44" operator="greaterThan" value="0.91728855721393"/>
               <Node id="250">
                <SimplePredicate field="f11" operator="lessOrEqual" value="288065"/>
                <Node id="284" score="should_approve">
                 <SimplePredicate field="f17" operator="lessOrEqual" value="76.5"/>
                </Node>
                <Node id="285" score="should_decline">
                 <SimplePredicate field="f17" operator="greaterThan" value="76.5"/>
                </Node>
               </Node>
               <Node id="251" score="should_decline">
                <SimplePredicate field="f11" operator="greaterThan" value="288065"/>
               </Node>
              </Node>
             </Node>
            </Node>
           </Node>
          </Node>
          <Node id="59">
           <SimplePredicate field="f46" operator="greaterThan" value="13.5"/>
           <Node id="94">
            <SimplePredicate field="f29" operator="lessOrEqual" value="2"/>
            <Node id="132">
             <SimplePredicate field="f22" operator="lessOrEqual" value="17.5"/>
             <Node id="172" score="should_approve">
              <SimplePredicate field="f56" operator="lessOrEqual" value="105"/>
             </Node>
             <Node id="173" score="should_decline">
              <SimplePredicate field="f56" operator="greaterThan" value="105"/>
             </Node>
            </Node>
            <Node id="133" score="should_approve">
             <SimplePredicate field="f22" operator="greaterThan" value="17.5"/>
            </Node>
           </Node>
           <Node id="95" score="should_decline">
            <SimplePredicate field="f29" operator="greaterThan" value="2"/>
           </Node>
          </Node>
         </Node>
        </Node>
       </Node>
      </Node>
     </Node>
    </TreeModel>
   </Segment>
   <Segment id="2">
    <True/>
    <TreeModel modelName="randomForest_Model" functionName="classification" algorithmName="randomForest" splitCharacteristic="binarySplit">
     <MiningSchema>
      <MiningField name="class" usageType="predicted"/>
      <MiningField name="f1" usageType="active"/>
      <MiningField name="f2" usageType="active"/>
      <MiningField name="f3" usageType="active"/>
      <MiningField name="f4" usageType="active"/>
      <MiningField name="f5" usageType="active"/>
      <MiningField name="f6" usageType="active"/>
      <MiningField name="f7" usageType="active"/>
      <MiningField name="f8" usageType="active"/>
      <MiningField name="f9" usageType="active"/>
      <MiningField name="f10" usageType="active"/>
      <MiningField name="f11" usageType="active"/>
      <MiningField name="f12" usageType="active"/>
      <MiningField name="f13" usageType="active"/>
      <MiningField name="f14" usageType="active"/>
      <MiningField name="f15" usageType="active"/>
      <MiningField name="f16" usageType="active"/>
      <MiningField name="f17" usageType="active"/>
      <MiningField name="f18" usageType="active"/>
      <MiningField name="f19" usageType="active"/>
      <MiningField name="f20" usageType="active"/>
      <MiningField name="f21" usageType="active"/>
      <MiningField name="f22" usageType="active"/>
      <MiningField name="f23" usageType="active"/>
      <MiningField name="f24" usageType="active"/>
      <MiningField name="f25" usageType="active"/>
      <MiningField name="f26" usageType="active"/>
      <MiningField name="f27" usageType="active"/>
      <MiningField name="f28" usageType="active"/>
      <MiningField name="f29" usageType="active"/>
      <MiningField name="f30" usageType="active"/>
      <MiningField name="f31" usageType="active"/>
      <MiningField name="f32" usageType="active"/>
      <MiningField name="f33" usageType="active"/>
      <MiningField name="f34" usageType="active"/>
      <MiningField name="f35" usageType="active"/>
      <MiningField name="f36" usageType="active"/>
      <MiningField name="f37" usageType="active"/>
      <MiningField name="f38" usageType="active"/>
      <MiningField name="f39" usageType="active"/>
      <MiningField name="f40" usageType="active"/>
      <MiningField name="f41" usageType="active"/>
      <MiningField name="f42" usageType="active"/>
      <MiningField name="f43" usageType="active"/>
      <MiningField name="f44" usageType="active"/>
      <MiningField name="f45" usageType="active"/>
      <MiningField name="f46" usageType="active"/>
      <MiningField name="f47" usageType="active"/>
      <MiningField name="f48" usageType="active"/>
      <MiningField name="f49" usageType="active"/>
      <MiningField name="f50" usageType="active"/>
      <MiningField name="f51" usageType="active"/>
      <MiningField name="f52" usageType="active"/>
      <MiningField name="f53" usageType="active"/>
      <MiningField name="f54" usageType="active"/>
      <MiningField name="f55" usageType="active"/>
      <MiningField name="f56" usageType="active"/>
      <MiningField name="f57" usageType="active"/>
      <MiningField name="f58" usageType="active"/>
      <MiningField name="f59" usageType="active"/>
      <MiningField name="f60" usageType="active"/>
      <MiningField name="f61" usageType="active"/>
      <MiningField name="f62" usageType="active"/>
      <MiningField name="f63" usageType="active"/>
      <MiningField name="f64" usageType="active"/>
      <MiningField name="f65" usageType="active"/>
      <MiningField name="f66" usageType="active"/>
      <MiningField name="f67" usageType="active"/>
     </MiningSchema>
     <Node id="1">
      <True/>
      <Node id="2">
       <SimplePredicate field="f28" operator="lessOrEqual" value="244.5"/>
       <Node id="4">
        <SimplePredicate field="f21" operator="lessOrEqual" value="1.62"/>
        <Node id="8">
         <SimplePredicate field="f22" operator="lessOrEqual" value="37.5"/>
         <Node id="16">
          <SimpleSetPredicate field="f49" booleanOperator="isIn">
           <Array n="1" type="string">&quot;field mismatch&quot;</Array>
          </SimpleSetPredicate>
          <Node id="32">
           <SimplePredicate field="f43" operator="lessOrEqual" value="31.8840579710145"/>
           <Node id="58">
            <SimplePredicate field="f2" operator="lessOrEqual" value="5"/>
            <Node id="98">
             <SimplePredicate field="f64" operator="lessOrEqual" value="1889809.5"/>
             <Node id="150">
              <SimplePredicate field="f41" operator="lessOrEqual" value="4457"/>
              <Node id="206" score="should_approve">
               <SimplePredicate field="f64" operator="lessOrEqual" value="187510"/>
              </Node>
              <Node id="207" score="should_decline">
               <SimplePredicate field="f64" operator="greaterThan" value="187510"/>
              </Node>
             </Node>
             <Node id="151">
              <SimplePredicate field="f41" operator="greaterThan" value="4457"/>
              <Node id="208">
               <SimplePredicate field="f4" operator="lessOrEqual" value="4.5"/>
               <Node id="244" score="should_decline">
                <SimpleSetPredicate field="f20" booleanOperator="isIn">
                 <Array n="1" type="string">&quot;Corporate&quot;</Array>
                </SimpleSetPredicate>
               </Node>
               <Node id="245" score="should_approve">
                <SimpleSetPredicate field="f20" booleanOperator="isIn">
                 <Array n="3" type="string">&quot;Cable/DSL&quot;   &quot;Cellular&quot;   &quot;Dialup&quot;</Array>
                </SimpleSetPredicate>
               </Node>
              </Node>
              <Node id="209" score="should_approve">
               <SimplePredicate field="f4" operator="greaterThan" value="4.5"/>
              </Node>
             </Node>
            </Node>
            <Node id="99">
             <SimplePredicate field="f64" operator="greaterThan" value="1889809.5"/>
             <Node id="152" score="should_decline">
              <SimplePredicate field="f24" operator="lessOrEqual" value="55.5"/>
             </Node>
             <Node id="153" score="should_approve">
              <SimplePredicate field="f24" operator="greaterThan" value="55.5"/>
             </Node>
            </Node>
           </Node>
           <Node id="59" score="should_decline">
            <SimplePredicate field="f2" operator="greaterThan" value="5"/>
           </Node>
          </Node>
          <Node id="33">
           <SimplePredicate field="f43" operator="greaterThan" value="31.8840579710145"/>
           <Node id="60" score="should_decline">
            <SimplePredicate field="f3" operator="lessOrEqual" value="30"/>
           </Node>
           <Node id="61">
            <SimplePredicate field="f3" operator="greaterThan" value="30"/>
            <Node id="100" score="should_decline">
             <SimplePredicate field="f17" operator="lessOrEqual" value="1"/>
            </Node>
            <Node id="101" score="should_approve">
             <SimplePredicate field="f17" operator="greaterThan" value="1"/>
            </Node>
           </Node>
          </Node>
         </Node>
         <Node id="17">
          <SimpleSetPredicate field="f49" booleanOperator="isIn">
           <Array n="2" type="string">&quot;field_match&quot;   &quot;no_field&quot;</Array>
          </SimpleSetPredicate>
          <Node id="34">
           <SimplePredicate field="f56" operator="lessOrEqual" value="89.5"/>
           <Node id="62">
            <SimplePredicate field="f32" operator="lessOrEqual" value="7171.5"/>
            <Node id="102">
             <SimpleSetPredicate field="f36" booleanOperator="isIn">
              <Array n="4" type="string">&quot;F&quot;   &quot;F1L1&quot;   &quot;FL1&quot;   &quot;NO_EA_NAME&quot;</Array>
             </SimpleSetPredicate>
             <Node id="154" score="should_decline">
              <SimpleSetPredicate field="f66" booleanOperator="isIn">
               <Array n="1" type="string">&quot;all_lowercase&quot;</Array>
              </SimpleSetPredicate>
             </Node>
             <Node id="155" score="should_approve">
              <SimpleSetPredicate field="f66" booleanOperator="isIn">
               <Array n="5" type="string">&quot;all_uppercase&quot;   &quot;capitalized&quot;   &quot;missing&quot;   &quot;other&quot;   &quot;prefix_cap&quot;</Array>
              </SimpleSetPredicate>
             </Node>
            </Node>
            <Node id="103" score="should_decline">
             <SimpleSetPredicate field="f36" booleanOperator="isIn">
              <Array n="4" type="string">&quot;F1L&quot;   &quot;FL&quot;   &quot;L&quot;   &quot;NO_MATCH&quot;</Array>
             </SimpleSetPredicate>
            </Node>
           </Node>
           <Node id="63">
            <SimplePredicate field="f32" operator="greaterThan" value="7171.5"/>
            <Node id="104">
             <SimplePredicate field="f18" operator="lessOrEqual" value="168"/>
             <Node id="156">
              <SimplePredicate field="f24" operator="lessOrEqual" value="78"/>
              <Node id="210" score="should_decline">
               <SimplePredicate field="f12" operator="lessOrEqual" value="4"/>
              </Node>
              <Node id="211">
               <SimplePredicate field="f12" operator="greaterThan" value="4"/>
               <Node id="246" score="should_approve">
                <SimplePredicate field="f43" operator="lessOrEqual" value="40.4303033597913"/>
               </Node>
               <Node id="247" score="should_decline">
                <SimplePredicate field="f43" operator="greaterThan" value="40.4303033597913"/>
               </Node>
              </Node>
             </Node>
             <Node id="157" score="should_approve">
              <SimplePredicate field="f24" operator="greaterThan" value="78"/>
             </Node>
            </Node>
            <Node id="105">
             <SimplePredicate field="f18" operator="greaterThan" value="168"/>
             <Node id="158" score="should_decline">
              <SimplePredicate field="f28" operator="lessOrEqual" value="91"/>
             </Node>
             <Node id="159">
              <SimplePredicate field="f28" operator="greaterThan" value="91"/>
              <Node id="212" score="should_decline">
               <SimplePredicate field="f43" operator="lessOrEqual" value="0.9044447367374"/>
              </Node>
              <Node id="213">
               <SimplePredicate field="f43" operator="greaterThan" value="0.9044447367374"/>
               <Node id="248" score="should_approve">
                <SimplePredicate field="f28" operator="lessOrEqual" value="161"/>
               </Node>
               <Node id="249">
                <SimplePredicate field="f28" operator="greaterThan" value="161"/>
                <Node id="268" score="should_approve">
                 <SimplePredicate field="f47" operator="lessOrEqual" value="17.9825"/>
                </Node>
                <Node id="269" score="should_decline">
                 <SimplePredicate field="f47" operator="greaterThan" value="17.9825"/>
                </Node>
               </Node>
              </Node>
             </Node>
            </Node>
           </Node>
          </Node>
          <Node id="35">
           <SimplePredicate field="f56" operator="greaterThan" value="89.5"/>
           <Node id="64" score="should_approve">
            <SimpleSetPredicate field="f26" booleanOperator="isIn">
             <Array n="1" type="string">&quot;Certified&quot;</Array>
            </SimpleSetPredicate>
           </Node>
           <Node id="65" score="should_decline">
            <SimpleSetPredicate field="f26" booleanOperator="isIn">
             <Array n="4" type="string">&quot;DomainInexistent&quot;   &quot;EmailInexistent&quot;   &quot;ValidDomain&quot;   &quot;Verified&quot;</Array>
            </SimpleSetPredicate>
           </Node>
          </Node>
         </Node>
        </Node>
        <Node id="9">
         <SimplePredicate field="f22" operator="greaterThan" value="37.5"/>
         <Node id="18">
          <SimplePredicate field="f47" operator="lessOrEqual" value="63.1575"/>
          <Node id="36">
           <SimplePredicate field="f43" operator="lessOrEqual" value="32.7956989247311"/>
           <Node id="66" score="should_approve">
            <SimplePredicate field="f12" operator="lessOrEqual" value="63.5"/>
           </Node>
           <Node id="67">
            <SimplePredicate field="f12" operator="greaterThan" value="63.5"/>
            <Node id="106">
             <SimplePredicate field="f14" operator="lessOrEqual" value="85.79"/>
             <Node id="160" score="should_approve">
              <SimplePredicate field="f56" operator="lessOrEqual" value="114.5"/>
             </Node>
             <Node id="161">
              <SimplePredicate field="f56" operator="greaterThan" value="114.5"/>
              <Node id="214" score="should_approve">
               <SimplePredicate field="f11" operator="lessOrEqual" value="1938380"/>
              </Node>
              <Node id="215">
               <SimplePredicate field="f11" operator="greaterThan" value="1938380"/>
               <Node id="250" score="should_approve">
                <SimplePredicate field="f14" operator="lessOrEqual" value="13.635"/>
               </Node>
               <Node id="251" score="should_decline">
                <SimplePredicate field="f14" operator="greaterThan" value="13.635"/>
               </Node>
              </Node>
             </Node>
            </Node>
            <Node id="107" score="should_decline">
             <SimplePredicate field="f14" operator="greaterThan" value="85.79"/>
            </Node>
           </Node>
          </Node>
          <Node id="37">
           <SimplePredicate field="f43" operator="greaterThan" value="32.7956989247311"/>
           <Node id="68" score="should_approve">
            <SimpleSetPredicate field="f16" booleanOperator="isIn">
             <Array n="1" type="string">&quot;f&quot;</Array>
            </SimpleSetPredicate>
           </Node>
           <Node id="69">
            <SimpleSetPredicate field="f16" booleanOperator="isIn">
             <Array n="1" type="string">&quot;t&quot;</Array>
            </SimpleSetPredicate>
            <Node id="108" score="should_decline">
             <SimpleSetPredicate field="f66" booleanOperator="isIn">
              <Array n="1" type="string">&quot;all_lowercase&quot;</Array>
             </SimpleSetPredicate>
            </Node>
            <Node id="109" score="should_approve">
             <SimpleSetPredicate field="f66" booleanOperator="isIn">
              <Array n="5" type="string">&quot;all_uppercase&quot;   &quot;capitalized&quot;   &quot;missing&quot;   &quot;other&quot;   &quot;prefix_cap&quot;</Array>
             </SimpleSetPredicate>
            </Node>
           </Node>
          </Node>
         </Node>
         <Node id="19">
          <SimplePredicate field="f47" operator="greaterThan" value="63.1575"/>
          <Node id="38">
           <SimpleSetPredicate field="f5" booleanOperator="isIn">
            <Array n="4" type="string">&quot;iPhone&quot;   &quot;Linux&quot;   &quot;Macintosh&quot;   &quot;Other&quot;</Array>
           </SimpleSetPredicate>
           <Node id="70" score="should_decline">
            <SimplePredicate field="f47" operator="lessOrEqual" value="65.6775"/>
           </Node>
           <Node id="71">
            <SimplePredicate field="f47" operator="greaterThan" value="65.6775"/>
            <Node id="110">
             <SimplePredicate field="f58" operator="lessOrEqual" value="0.5"/>
             <Node id="162" score="should_approve">
              <SimplePredicate field="f64" operator="lessOrEqual" value="573256.5"/>
             </Node>
             <Node id="163" score="should_decline">
              <SimplePredicate field="f64" operator="greaterThan" value="573256.5"/>
             </Node>
            </Node>
            <Node id="111">
             <SimplePredicate field="f58" operator="greaterThan" value="0.5"/>
             <Node id="164" score="should_approve">
              <SimplePredicate field="f14" operator="lessOrEqual" value="7.885"/>
             </Node>
             <Node id="165">
              <SimplePredicate field="f14" operator="greaterThan" value="7.885"/>
              <Node id="216" score="should_decline">
               <SimplePredicate field="f14" operator="lessOrEqual" value="8.155"/>
              </Node>
              <Node id="217" score="should_approve">
               <SimplePredicate field="f14" operator="greaterThan" value="8.155"/>
              </Node>
             </Node>
            </Node>
           </Node>
          </Node>
          <Node id="39">
           <SimpleSetPredicate field="f5" booleanOperator="isIn">
            <Array n="3" type="string">&quot;iPad&quot;   &quot;Windows&quot;   &quot;X11&quot;</Array>
           </SimpleSetPredicate>
           <Node id="72">
            <SimpleSetPredicate field="f37" booleanOperator="isIn">
             <Array n="1" type="string">&quot;MATCH&quot;</Array>
            </SimpleSetPredicate>
            <Node id="112" score="should_approve">
             <SimplePredicate field="f18" operator="lessOrEqual" value="41"/>
            </Node>
            <Node id="113">
             <SimplePredicate field="f18" operator="greaterThan" value="41"/>
             <Node id="166" score="should_approve">
              <SimplePredicate field="f12" operator="lessOrEqual" value="10.5"/>
             </Node>
             <Node id="167" score="should_decline">
              <SimplePredicate field="f12" operator="greaterThan" value="10.5"/>
             </Node>
            </Node>
           </Node>
           <Node id="73">
            <SimpleSetPredicate field="f37" booleanOperator="isIn">
             <Array n="2" type="string">&quot;NO_EA_COUNTRY&quot;   &quot;NO_MATCH&quot;</Array>
            </SimpleSetPredicate>
            <Node id="114" score="should_approve">
             <SimplePredicate field="f44" operator="lessOrEqual" value="1.21967651753537"/>
            </Node>
            <Node id="115">
             <SimplePredicate field="f44" operator="greaterThan" value="1.21967651753537"/>
             <Node id="168" score="should_decline">
              <SimpleSetPredicate field="f15" booleanOperator="isIn">
               <Array n="1" type="string">&quot;f&quot;</Array>
              </SimpleSetPredicate>
             </Node>
             <Node id="169">
              <SimpleSetPredicate field="f15" booleanOperator="isIn">
               <Array n="1" type="string">&quot;t&quot;</Array>
              </SimpleSetPredicate>
              <Node id="218" score="should_approve">
               <SimplePredicate field="f62" operator="lessOrEqual" value="15"/>
              </Node>
              <Node id="219">
               <SimplePredicate field="f62" operator="greaterThan" value="15"/>
               <Node id="252" score="should_approve">
                <SimpleSetPredicate field="f6" booleanOperator="isIn">
                 <Array n="1" type="string">&quot;Opera&quot;</Array>
                </SimpleSetPredicate>
               </Node>
               <Node id="253" score="should_decline">
                <SimpleSetPredicate field="f6" booleanOperator="isIn">
                 <Array n="6" type="string">&quot;Android&quot;   &quot;Chrome&quot;   &quot;Firefox&quot;   &quot;IE&quot;   &quot;Other&quot;   &quot;Safari&quot;</Array>
                </SimpleSetPredicate>
               </Node>
              </Node>
             </Node>
            </Node>
           </Node>
          </Node>
         </Node>
        </Node>
       </Node>
       <Node id="5">
        <SimplePredicate field="f21" operator="greaterThan" value="1.62"/>
        <Node id="10">
         <SimpleSetPredicate field="f13" booleanOperator="isIn">
          <Array n="2" type="string">&quot;FL&quot;   &quot;L&quot;</Array>
         </SimpleSetPredicate>
         <Node id="20" score="should_approve">
          <SimplePredicate field="f29" operator="lessOrEqual" value="1.5"/>
         </Node>
         <Node id="21" score="should_decline">
          <SimplePredicate field="f29" operator="greaterThan" value="1.5"/>
         </Node>
        </Node>
        <Node id="11">
         <SimpleSetPredicate field="f13" booleanOperator="isIn">
          <Array n="5" type="string">&quot;F&quot;   &quot;F1L&quot;   &quot;F1L1&quot;   &quot;FL1&quot;   &quot;NO_MATCH&quot;</Array>
         </SimpleSetPredicate>
         <Node id="22">
          <SimplePredicate field="f14" operator="lessOrEqual" value="9.41"/>
          <Node id="40" score="should_decline">
           <SimplePredicate field="f28" operator="lessOrEqual" value="89.5"/>
          </Node>
          <Node id="41" score="should_approve">
           <SimplePredicate field="f28" operator="greaterThan" value="89.5"/>
          </Node>
         </Node>
         <Node id="23">
          <SimplePredicate field="f14" operator="greaterThan" value="9.41"/>
          <Node id="42">
           <SimplePredicate field="f62" operator="lessOrEqual" value="25.5"/>
           <Node id="74">
            <SimplePredicate field="f44" operator="lessOrEqual" value="0.92144836020566"/>
            <Node id="116" score="should_decline">
             <SimplePredicate field="f22" operator="lessOrEqual" value="31"/>
            </Node>
            <Node id="117" score="should_approve">
             <SimplePredicate field="f22" operator="greaterThan" value="31"/>
            </Node>
           </Node>
           <Node id="75">
            <SimplePredicate field="f44" operator="greaterThan" value="0.92144836020566"/>
            <Node id="118">
             <SimplePredicate field="f28" operator="lessOrEqual" value="72"/>
             <Node id="170" score="should_decline">
              <SimplePredicate field="f8" operator="lessOrEqual" value="0.628492729270144"/>
             </Node>
             <Node id="171" score="should_approve">
              <SimplePredicate field="f8" operator="greaterThan" value="0.628492729270144"/>
             </Node>
            </Node>
            <Node id="119" score="should_decline">
             <SimplePredicate field="f28" operator="greaterThan" value="72"/>
            </Node>
           </Node>
          </Node>
          <Node id="43" score="should_approve">
           <SimplePredicate field="f62" operator="greaterThan" value="25.5"/>
          </Node>
         </Node>
        </Node>
       </Node>
      </Node>
      <Node id="3">
       <SimplePredicate field="f28" operator="greaterThan" value="244.5"/>
       <Node id="6">
        <SimplePredicate field="f46" operator="lessOrEqual" value="7.5"/>
        <Node id="12">
         <SimplePredicate field="f44" operator="lessOrEqual" value="3.45387340005241"/>
         <Node id="24">
          <SimplePredicate field="f47" operator="lessOrEqual" value="49.2883333333333"/>
          <Node id="44">
           <SimplePredicate field="f33" operator="lessOrEqual" value="11.2658357696056"/>
           <Node id="76">
            <SimpleSetPredicate field="f66" booleanOperator="isIn">
             <Array n="1" type="string">&quot;all_lowercase&quot;</Array>
            </SimpleSetPredicate>
            <Node id="120">
             <SimpleSetPredicate field="f5" booleanOperator="isIn">
              <Array n="2" type="string">&quot;Macintosh&quot;   &quot;Windows&quot;</Array>
             </SimpleSetPredicate>
             <Node id="172">
              <SimplePredicate field="f23" operator="lessOrEqual" value="40.5"/>
              <Node id="220" score="should_decline">
               <SimpleSetPredicate field="f26" booleanOperator="isIn">
                <Array n="2" type="string">&quot;EmailInexistent&quot;   &quot;ValidDomain&quot;</Array>
               </SimpleSetPredicate>
              </Node>
              <Node id="221">
               <SimpleSetPredicate field="f26" booleanOperator="isIn">
                <Array n="3" type="string">&quot;Certified&quot;   &quot;DomainInexistent&quot;   &quot;Verified&quot;</Array>
               </SimpleSetPredicate>
               <Node id="254">
                <SimplePredicate field="f29" operator="lessOrEqual" value="1.5"/>
                <Node id="270">
                 <SimplePredicate field="f56" operator="lessOrEqual" value="50"/>
                 <Node id="282" score="should_decline">
                  <SimpleSetPredicate field="f63" booleanOperator="isIn">
                   <Array n="1" type="string">&quot;mismatch&quot;</Array>
                  </SimpleSetPredicate>
                 </Node>
                 <Node id="283" score="should_approve">
                  <SimpleSetPredicate field="f63" booleanOperator="isIn">
                   <Array n="2" type="string">&quot;match&quot;   &quot;similar&quot;</Array>
                  </SimpleSetPredicate>
                 </Node>
                </Node>
                <Node id="271" score="should_decline">
                 <SimplePredicate field="f56" operator="greaterThan" value="50"/>
                </Node>
               </Node>
               <Node id="255">
                <SimplePredicate field="f29" operator="greaterThan" value="1.5"/>
                <Node id="272" score="should_decline">
                 <SimplePredicate field="f23" operator="lessOrEqual" value="17.5"/>
                </Node>
                <Node id="273">
                 <SimplePredicate field="f23" operator="greaterThan" value="17.5"/>
                 <Node id="284" score="should_approve">
                  <SimplePredicate field="f32" operator="lessOrEqual" value="7498"/>
                 </Node>
                 <Node id="285" score="should_decline">
                  <SimplePredicate field="f32" operator="greaterThan" value="7498"/>
                 </Node>
                </Node>
               </Node>
              </Node>
             </Node>
             <Node id="173" score="should_approve">
              <SimplePredicate field="f23" operator="greaterThan" value="40.5"/>
             </Node>
            </Node>
            <Node id="121" score="should_approve">
             <SimpleSetPredicate field="f5" booleanOperator="isIn">
              <Array n="5" type="string">&quot;iPad&quot;   &quot;iPhone&quot;   &quot;Linux&quot;   &quot;Other&quot;   &quot;X11&quot;</Array>
             </SimpleSetPredicate>
            </Node>
           </Node>
           <Node id="77">
            <SimpleSetPredicate field="f66" booleanOperator="isIn">
             <Array n="5" type="string">&quot;all_uppercase&quot;   &quot;capitalized&quot;   &quot;missing&quot;   &quot;other&quot;   &quot;prefix_cap&quot;</Array>
            </SimpleSetPredicate>
            <Node id="122">
             <SimplePredicate field="f44" operator="lessOrEqual" value="2.13120929817193"/>
             <Node id="174">
              <SimplePredicate field="f11" operator="lessOrEqual" value="8071072"/>
              <Node id="222">
               <SimplePredicate field="f12" operator="lessOrEqual" value="51"/>
               <Node id="256">
                <SimplePredicate field="f18" operator="lessOrEqual" value="1.5"/>
                <Node id="274" score="should_decline">
                 <SimplePredicate field="f8" operator="lessOrEqual" value="-0.063736400849848"/>
                </Node>
                <Node id="275" score="should_approve">
                 <SimplePredicate field="f8" operator="greaterThan" value="-0.063736400849848"/>
                </Node>
               </Node>
               <Node id="257" score="should_approve">
                <SimplePredicate field="f18" operator="greaterThan" value="1.5"/>
               </Node>
              </Node>
              <Node id="223">
               <SimplePredicate field="f12" operator="greaterThan" value="51"/>
               <Node id="258">
                <SimpleSetPredicate field="f55" booleanOperator="isIn">
                 <Array n="3" type="string">&quot;F&quot;   &quot;FL&quot;   &quot;L&quot;</Array>
                </SimpleSetPredicate>
                <Node id="276">
                 <SimpleSetPredicate field="f35" booleanOperator="isIn">
                  <Array n="1" type="string">&quot;f&quot;</Array>
                 </SimpleSetPredicate>
                 <Node id="286">
                  <SimpleSetPredicate field="f37" booleanOperator="isIn">
                   <Array n="1" type="string">&quot;MATCH&quot;</Array>
                  </SimpleSetPredicate>
                  <Node id="292">
                   <SimpleSetPredicate field="f13" booleanOperator="isIn">
                    <Array n="2" type="string">&quot;FL1&quot;   &quot;L&quot;</Array>
                   </SimpleSetPredicate>
                   <Node id="294" score="should_decline">
                    <SimplePredicate field="f22" operator="lessOrEqual" value="50.5"/>
                   </Node>
                   <Node id="295" score="should_approve">
                    <SimplePredicate field="f22" operator="greaterThan" value="50.5"/>
                   </Node>
                  </Node>
                  <Node id="293" score="should_approve">
                   <SimpleSetPredicate field="f13" booleanOperator="isIn">
                    <Array n="5" type="string">&quot;F&quot;   &quot;F1L&quot;   &quot;F1L1&quot;   &quot;FL&quot;   &quot;NO_MATCH&quot;</Array>
                   </SimpleSetPredicate>
                  </Node>
                 </Node>
                 <Node id="287" score="should_approve">
                  <SimpleSetPredicate field="f37" booleanOperator="isIn">
                   <Array n="2" type="string">&quot;NO_EA_COUNTRY&quot;   &quot;NO_MATCH&quot;</Array>
                  </SimpleSetPredicate>
                 </Node>
                </Node>
                <Node id="277" score="should_decline">
                 <SimpleSetPredicate field="f35" booleanOperator="isIn">
                  <Array n="1" type="string">&quot;t&quot;</Array>
                 </SimpleSetPredicate>
                </Node>
               </Node>
               <Node id="259">
                <SimpleSetPredicate field="f55" booleanOperator="isIn">
                 <Array n="1" type="string">&quot;NO_MATCH&quot;</Array>
                </SimpleSetPredicate>
                <Node id="278" score="should_approve">
                 <SimpleSetPredicate field="f5" booleanOperator="isIn">
                  <Array n="3" type="string">&quot;iPhone&quot;   &quot;Linux&quot;   &quot;Macintosh&quot;</Array>
                 </SimpleSetPredicate>
                </Node>
                <Node id="279">
                 <SimpleSetPredicate field="f5" booleanOperator="isIn">
                  <Array n="4" type="string">&quot;iPad&quot;   &quot;Other&quot;   &quot;Windows&quot;   &quot;X11&quot;</Array>
                 </SimpleSetPredicate>
                 <Node id="288" score="should_decline">
                  <SimpleSetPredicate field="f54" booleanOperator="isIn">
                   <Array n="1" type="string">&quot;field mismatch&quot;</Array>
                  </SimpleSetPredicate>
                 </Node>
                 <Node id="289" score="should_approve">
